<?xml version="1.0"?>
<opencv_storage>
<cascade>
  <stageType>BOOST</stageType>
  <featureType>HAAR</featureType>
  <height>100</height>
  <width>100</width>
  <stageParams>
    <boostType>GAB</boostType>
    <minHitRate>9.9500000476837158e-01</minHitRate>
    <maxFalseAlarm>6.0000002384185791e-01</maxFalseAlarm>
    <weightTrimRate>9.4999998807907104e-01</weightTrimRate>
    <maxDepth>1</maxDepth>
    <maxWeakCount>100</maxWeakCount></stageParams>
  <featureParams>
    <maxCatCount>0</maxCatCount>
    <featSize>1</featSize>
    <mode>BASIC</mode></featureParams>
  <stageNum>3</stageNum>
  <stages>
    <!-- stage 0 -->
    <_>
      <maxWeakCount>2</maxWeakCount>
      <stageThreshold>-1.4808547496795654e-01</stageThreshold>
      <weakClassifiers>
        <_>
          <internalNodes>
            0 -1 2 -5.4454661905765533e-02</internalNodes>
          <leafValues>
            8.9427310228347778e-01 -9.9265199899673462e-01</leafValues></_>
        <_>
          <internalNodes>
            0 -1 5 3.3254276961088181e-02</internalNodes>
          <leafValues>
            -9.8683190345764160e-01 8.4456652402877808e-01</leafValues></_></weakClassifiers></_>
    <!-- stage 1 -->
    <_>
      <maxWeakCount>2</maxWeakCount>
      <stageThreshold>-1.9995599985122681e-01</stageThreshold>
      <weakClassifiers>
        <_>
          <internalNodes>
            0 -1 0 9.5487952232360840e-02</internalNodes>
          <leafValues>
            -9.9728995561599731e-01 7.6209676265716553e-01</leafValues></_>
        <_>
          <internalNodes>
            0 -1 4 2.8475815057754517e-01</internalNodes>
          <leafValues>
            -9.6205276250839233e-01 9.2578995227813721e-01</leafValues></_></weakClassifiers></_>
    <!-- stage 2 -->
    <_>
      <maxWeakCount>2</maxWeakCount>
      <stageThreshold>-1.2924994528293610e-01</stageThreshold>
      <weakClassifiers>
        <_>
          <internalNodes>
            0 -1 3 4.0123902261257172e-02</internalNodes>
          <leafValues>
            -9.6150082349777222e-01 9.9477809667587280e-01</leafValues></_>
        <_>
          <internalNodes>
            0 -1 1 2.8012078255414963e-02</internalNodes>
          <leafValues>
            -9.8684924840927124e-01 8.3225089311599731e-01</leafValues></_></weakClassifiers></_></stages>
  <features>
    <_>
      <rects>
        <_>
          0 14 30 69 -1.</_>
        <_>
          15 14 15 69 2.</_></rects>
      <tilted>0</tilted></_>
    <_>
      <rects>
        <_>
          7 68 54 22 -1.</_>
        <_>
          7 68 27 11 2.</_>
        <_>
          34 79 27 11 2.</_></rects>
      <tilted>0</tilted></_>
    <_>
      <rects>
        <_>
          9 10 50 32 -1.</_>
        <_>
          9 10 25 16 2.</_>
        <_>
          34 26 25 16 2.</_></rects>
      <tilted>0</tilted></_>
    <_>
      <rects>
        <_>
          35 74 31 24 -1.</_>
        <_>
          35 82 31 8 3.</_></rects>
      <tilted>0</tilted></_>
    <_>
      <rects>
        <_>
          37 20 63 65 -1.</_>
        <_>
          58 20 21 65 3.</_></rects>
      <tilted>0</tilted></_>
    <_>
      <rects>
        <_>
          81 1 4 99 -1.</_>
        <_>
          81 34 4 33 3.</_></rects>
      <tilted>0</tilted></_></features></cascade>
</opencv_storage>
